{
    "layers": [
        {
            "name": "input",
            "type": "input",
            "size": 39
        },
        {
            "name": "blstm_level_0",
            "type": "blstm",
            "size": 10,
            "bias": 1
        },
        {
            "name": "subsample_level_0",
            "type": "feedforward_tanh",
            "size": 5,
            "bias": 0
        },
        {
            "name": "blstm_level_1",
            "type": "blstm",
            "size": 10,
            "bias": 1
        },
        {
            "name": "subsample_level_1",
            "type": "feedforward_tanh",
            "size": 5,
            "bias": 0
        },
        {
            "name": "blstm_level_2",
            "type": "blstm",
            "size": 10,
            "bias": 1
        },
        {
            "name": "output",
            "type": "softmax",
            "size": 51,
            "bias": 1
        },
        {
            "name": "postoutput",
            "type": "multiclass_classification",
            "size": 51
        }
    ],
    "weights": {
        "blstm_level_0": {
            "input": [
                0.0527637,
                0.0523827,
                -0.0960978,
                0.0411617,
                -0.0625583,
                -0.0168855,
                -0.0141732,
                -0.00121994,
                0.0808735,
                0.03504,
                0.0350021,
                0.0841895,
                -0.087469,
                0.00187156,
                0.0324527,
                0.0110891,
                -0.0685229,
                0.0647099,
                0.0750406,
                -0.0627612,
                0.0617534,
                -0.0671172,
                -0.0622749,
                0.0665006,
                0.0602216,
                0.0497536,
                -0.0583542,
                -0.0586153,
                0.0420973,
                -0.0471489,
                0.0909085,
                -0.0421352,
                -0.0142572,
                0.0891127,
                -0.0685228,
                0.0994197,
                -0.0162146,
                0.083159,
                0.041012,
                -0.0309875,
                -0.0504376,
                0.0179511,
                0.0568925,
                -0.0900979,
                -0.001323,
                -0.0812092,
                0.0714659,
                -0.035089,
                0.065722,
                0.0123784,
                -0.0500127,
                -0.0731134,
                0.030067,
                0.0577566,
                -0.0678155,
                0.099824,
                -0.0400477,
                0.0823347,
                -0.0152294,
                -0.0920189,
                -0.0561446,
                -0.0783567,
                0.0568349,
                -0.0740007,
                -0.0655569,
                -0.0304036,
                -0.0260513,
                -0.0913591,
                -0.0383065,
                0.0653678,
                0.010939,
                -0.0631531,
                0.0899526,
                0.0061175,
                0.0521917,
                0.0823037,
                -0.0376348,
                0.0746386,
                -0.0674956,
                0.059877,
                -0.0317661,
                0.0820544,
                -0.045291,
                -0.0497491,
                -0.0688168,
                0.0272618,
                -0.0345759,
                -0.077693,
                0.0972115,
                -0.0401746,
                -0.031173,
                0.0261333,
                -0.0682329,
                0.040418,
                -0.0517318,
                -0.0485583,
                -0.0396246,
                -0.0924825,
                0.0269583,
                -0.0454367,
                -0.0114671,
                0.0648357,
                -0.000270726,
                0.014879,
                0.053942,
                -0.0957482,
                0.0860889,
                0.023553,
                0.0718027,
                -0.0662862,
                -0.0224552,
                0.0959166,
                -0.00300317,
                0.093075,
                0.021755,
                0.0988567,
                -0.0839247,
                0.0859834,
                -0.0327324,
                -0.0657542,
                0.0323798,
                0.0387812,
                -0.0839797,
                0.047919,
                -0.0452992,
                0.0607356,
                0.0948232,
                0.0550224,
                -0.0812665,
                -0.0116581,
                -0.0651452,
                -0.0597221,
                -0.0552088,
                0.0916934,
                -0.0073838,
                -0.0679087,
                -0.0769118,
                -0.0837986,
                0.00558849,
                -0.0428781,
                -0.0589155,
                -0.0846783,
                -0.0314586,
                -0.0715846,
                -0.0121493,
                -0.0102076,
                0.00836689,
                0.0417557,
                -0.0921518,
                -0.0477996,
                0.0121376,
                0.0740035,
                0.0705233,
                -0.0591826,
                -0.0469982,
                -0.0530012,
                -0.0679922,
                0.0686396,
                0.0298174,
                0.00321278,
                -0.0349952,
                0.0622105,
                0.0926233,
                -0.00597617,
                -0.00756173,
                -0.0567565,
                0.0810136,
                0.0196688,
                0.0711668,
                0.0923304,
                0.0522084,
                -0.0208523,
                0.0561844,
                -0.0107442,
                -0.0333557,
                -0.0499096,
                0.0367617,
                -0.0883822,
                -0.0755298,
                0.0189349,
                -0.0359903,
                0.0239101,
                0.0256705,
                -0.0257545,
                0.0621557,
                0.0761641,
                -0.0993879,
                0.0867649,
                0.0836227,
                0.0969286,
                -0.0202101,
                -0.0575966,
                0.043767,
                -0.00335456,
                0.0432679,
                -0.0434963,
                0.0803562,
                -0.0132796,
                0.0713087,
                -0.0635603,
                0.0242885,
                0.0240428,
                -0.0350165,
                -0.0919467,
                -0.0207317,
                0.0869471,
                0.0561617,
                -0.00654908,
                -0.0478171,
                -0.0839302,
                -0.0559598,
                -0.00400577,
                -0.0783937,
                0.0129388,
                0.0417863,
                0.0752705,
                -0.0557046,
                0.0527531,
                0.0551635,
                0.0211756,
                0.0821291,
                -0.0375057,
                -0.0156839,
                0.00258166,
                0.0121794,
                -0.0361645,
                0.0594915,
                -0.068674,
                -0.0129768,
                -0.0233716,
                -0.016595,
                -0.0292267,
                0.079655,
                0.0770524,
                -0.0517906,
                -0.0342626,
                -0.0868631,
                -0.0568936,
                0.0927058,
                -0.0183877,
                -0.0400285,
                -0.0431758,
                0.0604533,
                -0.0969478,
                -0.0121767,
                -0.00492242,
                0.0399352,
                -0.0923561,
                -0.0627552,
                -0.0487037,
                -0.0912509,
                0.081177,
                0.0264625,
                0.0198077,
                0.019276,
                -0.0578222,
                0.0678412,
                -0.0815041,
                -0.0819437,
                0.0891129,
                0.0797055,
                0.046714,
                0.0428203,
                -0.0442661,
                -0.00546643,
                -0.0626797,
                0.0151696,
                -0.0671907,
                -0.088289,
                -0.0498851,
                -0.0362359,
                -0.0302293,
                0.0749761,
                -0.0730295,
                0.0303551,
                0.093797,
                -0.0914762,
                -0.0831224,
                0.0490615,
                -0.0460982,
                -0.0167511,
                0.055149,
                -0.0184324,
                -0.0735219,
                0.0850757,
                -0.0594702,
                0.0804748,
                0.0238795,
                0.0793303,
                -0.066339,
                -0.0444173,
                0.0440969,
                0.013169,
                -0.0444107,
                0.0663517,
                0.0335856,
                0.00664999,
                0.0701719,
                -0.0548626,
                -0.0409593,
                0.0810482,
                0.00712144,
                0.0568058,
                0.0123348,
                0.0993773,
                -0.0472936,
                0.0365616,
                0.00277208,
                -0.00776443,
                0.00926848,
                -0.00344176,
                0.0560401,
                -0.0216857,
                0.0975536,
                -0.0748666,
                0.0403824,
                0.0113368,
                0.0633275,
                -0.0138034,
                -0.0939231,
                0.0336832,
                0.0653462,
                -0.0140944,
                0.0924276,
                0.0627447,
                0.0267465,
                0.0659786,
                -0.0489596,
                0.0718912,
                0.00860091,
                -0.000402995,
                -0.0018332,
                0.0167045,
                -0.0153696,
                0.0897901,
                -0.0951554,
                -0.0965687,
                -0.0961638,
                -0.0812187,
                0.0611669,
                -0.0835965,
                -0.0990998,
                0.0268323,
                0.0679749,
                -0.0891696,
                -0.0469162,
                -0.0268023,
                0.0321331,
                0.0550421,
                0.0748543,
                -0.0282168,
                -0.0618124,
                -0.0701188,
                0.0293123,
                -0.0109187,
                -0.0440115,
                -0.0376851,
                0.0534679,
                -0.0286407,
                -0.0432104,
                -0.0690029,
                0.0578778,
                0.0125977,
                0.0447014,
                0.0458481,
                -0.0283341,
                0.0458957,
                -0.0714859,
                0.0664979,
                0.067803,
                -0.020163,
                0.0272106,
                0.0547118,
                0.0732402,
                -0.0311136,
                -0.0430811,
                0.0656333,
                -0.0856818,
                -0.0517992,
                0.03617,
                -0.00182239,
                -0.00601943,
                0.0478557,
                0.0308877,
                -0.0064125,
                -0.0336511,
                -0.0489867,
                -0.0519359,
                0.0866934,
                -0.0674412,
                0.0178933,
                0.0391521,
                -0.00485688,
                -0.047406,
                0.0719821,
                0.0940972,
                -0.0412153,
                -0.056663,
                0.0921944,
                0.030998,
                0.012826,
                -0.0844674,
                0.067734,
                -0.0355201,
                0.0464939,
                0.0158612,
                -0.0962701,
                -0.0488718,
                0.0216337,
                0.035363,
                0.00937442,
                -0.0143764,
                0.00604224,
                0.0197862,
                0.0233832,
                -0.0757152,
                0.0450043,
                -0.0814504,
                -0.029134,
                -0.0195758,
                -0.060283,
                -0.0895628,
                0.0146099,
                0.0352143,
                0.000427863,
                0.0248388,
                0.0281215,
                -0.0469005,
                0.0823408,
                -0.0317897,
                0.0385425,
                0.0133839,
                -0.001832,
                -0.0645116,
                0.0867756,
                -0.0881143,
                0.069248,
                0.058694,
                0.0883177,
                0.0947948,
                -0.0268907,
                0.0670722,
                0.0517933,
                -0.0483116,
                0.0259621,
                -0.0648077,
                -0.0974998,
                -0.051701,
                -0.0437559,
                0.0326598,
                0.086209,
                0.0802174,
                0.0351126,
                -0.0596356,
                0.0500453,
                0.0574237,
                0.0243382,
                0.0507182,
                0.0507784,
                0.0675454,
                0.0333289,
                -0.000999936,
                0.0662424,
                0.0302172,
                -0.0955678,
                0.0765773,
                -0.0257619,
                0.0299296,
                -0.0315748,
                0.00887082,
                0.0735736,
                0.054984,
                -0.0768777,
                -0.0362545,
                -0.0996204,
                0.0869663,
                -0.0530458,
                0.0961695,
                0.0233218,
                -0.041527,
                0.00348641,
                0.0692114,
                0.0942164,
                -0.0050294,
                0.0420499,
                -0.0718689,
                -0.0236075,
                -0.0782884,
                0.050333,
                0.0613382,
                -0.0401921,
                0.0861944,
                -0.0595959,
                0.0663077,
                -0.0180511,
                -0.0446854,
                0.00357238,
                -0.065035,
                -0.0688609,
                0.0259732,
                -0.0850445,
                -0.0842279,
                -0.0861226,
                0.010043,
                -0.0025856,
                0.030826,
                0.0299819,
                -0.096233,
                0.0997769,
                -0.0376331,
                0.0211595,
                -0.0705463,
                0.0742852,
                0.0877544,
                0.022521,
                0.0893147,
                0.00666364,
                0.0452205,
                0.0543945,
                -0.00364371,
                0.0885927,
                -0.0711454,
                -0.0962708,
                -0.00144617,
                -0.0449269,
                -0.0123228,
                -0.0312886,
                -0.0357556,
                0.0446015,
                -0.0869023,
                -0.0718322,
                0.0152195,
                0.021466,
                -0.0665233,
                -0.0694048,
                0.00712339,
                -0.0312635,
                0.0305045,
                -0.0813172,
                -0.0532903,
                -0.00673769,
                -0.0658506,
                0.0896561,
                0.0831246,
                -0.0333348,
                0.0693225,
                -0.0966241,
                -0.0290853,
                -0.0720248,
                -0.0253491,
                -0.0992312,
                0.0146714,
                -0.0666018,
                -0.01886,
                -0.0865004,
                0.0790595,
                -0.0913014,
                0.0147863,
                -0.00537481,
                0.0117467,
                0.0155338,
                -0.0705382,
                0.0701055,
                0.0102219,
                0.0600873,
                0.0647663,
                -0.0248924,
                -0.0624131,
                -0.0584719,
                -0.0344864,
                0.072943,
                0.0891027,
                0.0119164,
                -0.0278821,
                0.0404966,
                0.0996638,
                -0.0207574,
                0.0492522,
                0.075671,
                -0.0365449,
                0.0142847,
                -0.00197311,
                -0.0954644,
                -0.0951929,
                -0.0139315,
                0.061199,
                -0.0405923,
                0.0562945,
                0.0333862,
                -0.0056993,
                -0.0165479,
                0.00599785,
                -0.0259284,
                0.0151011,
                0.00995572,
                0.01733,
                0.034949,
                0.0104657,
                0.0425213,
                0.0891576,
                -0.0362226,
                0.0545896,
                0.0200469,
                -0.0252019,
                0.0363855,
                0.0408747,
                0.0439042,
                0.0596576,
                0.0998817,
                -0.0445673,
                0.0854079,
                0.0128087,
                0.0365417,
                -0.0597772,
                -0.0682477,
                0.0221709,
                0.0211675,
                -0.0459233,
                -0.00711967,
                -0.0522113,
                -0.0351287,
                -0.0920527,
                -0.0330767,
                0.0653567,
                0.0579233,
                -0.0748487,
                0.0350744,
                -0.0106037,
                0.0954037,
                0.0793605,
                0.0435663,
                -0.0364982,
                0.0198661,
                0.0423865,
                0.0223449,
                -0.0423969,
                0.0855265,
                -0.0410268,
                -0.0336926,
                0.0243011,
                0.0208079,
                -0.0678552,
                0.0817241,
                0.081925,
                -0.0486076,
                -0.0681221,
                -0.0391143,
                -0.0140053,
                0.0025654,
                -0.0257155,
                0.0492289,
                0.0955774,
                0.0150478,
                0.0381924,
                0.0379855,
                -0.0444061,
                -0.0599574,
                0.0119423,
                -0.0696157,
                -0.0244826,
                0.0587311,
                0.0470039,
                -0.0219437,
                0.0809865,
                0.0722547,
                -0.0524022,
                0.0266548,
                -0.0305159,
                -0.0224688,
                0.0452281,
                0.072874,
                0.00708121,
                -0.0376232,
                0.0763288,
                -0.045574,
                -0.0584506,
                -0.0209885,
                0.0770307,
                -0.0363706,
                -0.0279341,
                -0.0757736,
                -0.0482102,
                -0.0783793,
                -0.00418644,
                0.0514492,
                0.0393579,
                -0.0244655,
                -0.0522852,
                0.0390732,
                0.0441057,
                -0.0969746,
                -0.0726708,
                -0.00705941,
                -0.0548472,
                -0.000670808,
                0.0990615,
                0.0611515,
                -0.0696333,
                -0.0927417,
                -0.0453606,
                0.0441342,
                -0.00715612,
                0.0016849,
                -0.0425016,
                -0.0645377,
                0.0115519,
                0.0859963,
                0.0294484,
                -0.0771204,
                -0.0647882,
                -0.0552289,
                -0.0682738,
                0.0549184,
                0.099712,
                0.0825883,
                0.0458663,
                0.0952751,
                -0.00282057,
                0.0799132,
                -0.0812104,
                -0.00731964,
                -0.0981901,
                0.0804472,
                0.00528844,
                0.0399634,
                0.0251673,
                -0.0244674,
                -0.0426602,
                -0.023807,
                -0.0810778,
                -0.0223057,
                0.0551526,
                0.016412,
                -0.00385635,
                0.0135877,
                0.0520222,
                0.0106516,
                -0.0231256,
                -0.0885291,
                0.0345025,
                -0.0282143,
                -0.0455678,
                0.00935721,
                0.0763574,
                0.0191571,
                -0.0736378,
                0.00363451,
                0.0021507,
                0.0184675,
                -0.057101,
                -0.0317787,
                -0.0552904,
                0.0492697,
                -0.0375311,
                -0.0519782,
                -0.00887279,
                0.0632815,
                -0.0384809,
                -0.0803681,
                0.0676732,
                -0.0652314,
                -0.0359329,
                -0.0906691,
                0.0388831,
                -0.067984,
                -0.00120986,
                0.0554848,
                0.0634366,
                0.0631689,
                -0.0817972,
                0.0598289,
                -0.0410442,
                0.0863895,
                -0.0012407,
                0.0432138,
                -0.0198607,
                -0.0453561,
                -0.0015773,
                -0.0362703,
                0.0755764,
                -0.0508227,
                -0.0120705,
                -0.0229986,
                -0.0445197,
                0.00477873,
                0.0540558,
                -0.066913,
                0.0492113,
                -0.0320167,
                -0.0728385,
                0.0164235,
                -0.0732079,
                -0.0459241,
                -0.00494119,
                0.0268482,
                0.0582184,
                0.0363324,
                -0.0198113,
                -0.060351,
                0.0710521,
                0.0923712,
                0.0182467,
                -0.0568206,
                0.0634168,
                -0.0966325,
                0.0450156,
                -0.0126934,
                0.0118903,
                -0.0281683,
                0.0926732,
                0.0990876,
                0.0700147,
                0.0116931,
                0.0972513,
                -0.0571425,
                0.0349574,
                -0.0925428,
                0.0219858,
                -0.0622165,
                -0.0695835,
                0.0807606,
                -0.0520513,
                -0.0226481,
                0.0272688,
                0.0118435,
                -0.0510412,
                -0.0200595,
                -0.0987864,
                0.0752142,
                0.0460002,
                0.0161314,
                -0.0436361,
                -0.00514508,
                -0.000675514,
                0.0682124,
                -0.0421444,
                -0.00911361,
                0.00273403,
                0.0263116,
                0.0459142,
                0.091572,
                -0.0309924,
                -0.0885616,
                0.088004,
                -0.0393859,
                -0.0112651,
                0.028437,
                0.0863913,
                -0.0546875,
                0.0980707,
                -0.00815105,
                0.00599442,
                -0.0490531,
                0.0351407,
                -0.0376835,
                -0.0999822,
                -0.0111333,
                0.0648988,
                -0.0748592,
                0.0232282,
                0.0248047,
                0.0779938,
                -0.0938725,
                0.0277077,
                0.0300455,
                0.0167341,
                0.0104048,
                -0.0924415,
                0.0738559,
                -0.0578459,
                -0.0615561,
                0.0207635,
                -0.0339629,
                -0.00199392,
                0.023557,
                -0.0676195,
                -0.00348176,
                -0.0439559,
                -0.0351569,
                -0.0929882,
                -0.0926516,
                -0.0656286,
                0.0632607,
                -0.0935243,
                0.0972279,
                0.0815915,
                0.0577484,
                -0.0631415,
                0.0204927,
                0.00860658,
                -0.0849424,
                0.061862,
                -0.0334175,
                0.0297498,
                0.0987948,
                0.0345879,
                -0.0701995,
                0.0396407,
                -0.037846,
                -0.0245382,
                -0.0467359,
                -0.0679239,
                0.0176743,
                -0.0374062,
                0.080724,
                -0.0825579,
                -0.0807233,
                0.0834319,
                0.059429,
                -0.074524,
                -0.0896616,
                0.0619944,
                -0.0719866,
                0.0948515,
                0.0772133,
                -0.0997163,
                -0.0758764,
                -0.0236333,
                -0.0810902,
                -0.0751322,
                0.0891364,
                -0.0747882,
                -0.0872105,
                -0.0961099,
                0.0674133,
                0.0194768,
                0.0118799,
                -0.099409,
                0.019662,
                -0.0449134,
                -0.0246452,
                -0.0204809,
                -0.0506147,
                0.0369217,
                0.0864423,
                0.0560834,
                0.0792137,
                -0.0200409,
                -0.0486456,
                0.0837683,
                -0.0539508,
                0.0613401,
                0.0214057,
                0.0676569,
                0.0907814,
                -0.0951735,
                0.0861427,
                0.0241865,
                0.0464794,
                0.0806222,
                -0.0323506,
                -0.0877958,
                0.0645116,
                -0.023034,
                0.0102748,
                0.0363039,
                0.0185298,
                -0.0974137,
                -0.0738274,
                0.0470113,
                -0.0823083,
                -0.0175195,
                -0.0305696,
                -0.00254813,
                -0.0462384,
                -0.0994877,
                -0.0400168,
                0.0901396,
                -0.0609144,
                -0.0348608,
                -0.0441772,
                -0.0935501,
                0.0432256,
                0.0460196,
                0.0231662,
                -0.0504466,
                0.0186933,
                -0.0659913,
                -0.00787497,
                0.00287378,
                0.0474483,
                0.0907596,
                0.0530242,
                0.0823465,
                -0.00963082,
                0.0859107,
                0.0887015,
                -0.0595376,
                0.091106,
                -0.0461104,
                -0.0451301,
                -0.0801199,
                0.091921,
                0.0989469,
                0.0562447,
                -0.056833,
                -0.0344731,
                -0.0123433,
                -0.0287117,
                0.00580879,
                -0.044219,
                -0.00809093,
                0.071559,
                0.0784315,
                0.0773763,
                -0.080686,
                0.0947828,
                -0.011913,
                0.0982773,
                0.078191,
                0.077244,
                0.0548335,
                -0.0803774,
                -0.0587572,
                -0.0410085,
                -0.00300787,
                0.0550627,
                0.0230218,
                -0.024395,
                0.0490738,
                -0.0300345,
                -0.0652425,
                0.0638705,
                0.0936267,
                0.0217442,
                -0.0425854,
                0.00925402,
                0.0981572,
                0.0031908,
                -0.00922674,
                -0.0243143,
                0.0885742,
                -0.0995814,
                -0.090002,
                0.0489703,
                0.0205339,
                -0.0654587,
                0.0568342,
                0.0861846,
                0.0442494,
                -0.0485359,
                0.0803353,
                0.0980303,
                0.0578391,
                -0.064726,
                0.0576479,
                -0.0872203,
                0.0852439,
                0.0347684,
                0.0493065,
                0.0911156,
                -0.0455132,
                0.0895849,
                -0.0773195,
                -0.0229537,
                0.00912309,
                0.0534437,
                0.0443317,
                0.066584,
                0.0771508,
                0.0718014,
                0.0713999,
                -0.0435502,
                0.0427666,
                -0.0895061,
                0.0243903,
                -0.0325194,
                -0.0423703,
                -0.00589933,
                -0.0978222,
                -0.0239198,
                -0.0418341,
                -0.0203738,
                0.0296069,
                0.0800771,
                -0.0549402,
                -0.0700652,
                0.0300954,
                0.04518,
                -0.0170883,
                0.0763078,
                0.0536578,
                0.0118965,
                0.0473399,
                0.0992219,
                -0.0770671,
                0.0787682,
                0.0824372,
                0.0357332,
                0.0369641,
                0.0279196,
                0.0860882,
                -0.0506181,
                -0.0797156,
                0.0165519,
                0.0719889,
                -0.0272362,
                0.0708177,
                0.00771944,
                -0.0374559,
                -0.0697731,
                0.0658054,
                0.0763049,
                0.00625996,
                -0.0915132,
                0.0181497,
                -0.0281703,
                -0.00870525,
                0.0439596,
                0.048303,
                -0.0995869,
                0.097984,
                -0.0494129,
                0.0351824,
                -0.0782707,
                -0.0865271,
                -0.0510745,
                0.0544809,
                0.035432,
                0.0799075,
                0.0399774,
                0.0119161,
                0.0461821,
                0.0759031,
                0.0800288,
                0.0404766,
                0.0993749,
                -0.0802901,
                0.070173,
                0.096505,
                -0.0568286,
                -0.0774034,
                0.00748315,
                -0.00755558,
                0.0253902,
                -0.0889387,
                -0.0474045,
                -0.0278571,
                0.0311281,
                0.020228,
                0.00600071,
                0.0584612,
                0.0607576,
                0.0727912,
                -0.0793759,
                0.0351712,
                -0.0630624,
                -0.090434,
                -0.0118495,
                -0.0503087,
                -0.0997828,
                -0.0829584,
                0.0327703,
                -0.0959433,
                0.0434829,
                -0.0451793,
                -0.0596669,
                -0.0286096,
                -0.0612097,
                0.0646268,
                0.099679,
                0.0177047,
                0.0845666,
                0.076905,
                0.0579733,
                -0.0475043,
                -0.0723881,
                0.0227911,
                0.0409156,
                0.0679084,
                -0.0533341,
                -0.0735487,
                0.057474,
                -0.0470408,
                0.0497206,
                -0.091428,
                0.00697954,
                0.0649049,
                0.00756359,
                0.0326306,
                0.0522271,
                -0.0360766,
                0.0394613,
                0.0316669,
                -0.097313,
                -0.0614097,
                -0.0130464,
                0.00518483,
                0.0921589,
                0.015563,
                -0.0194076,
                -0.0242365,
                0.0421792,
                -0.0857976,
                0.0174269,
                0.0811766,
                0.000559593,
                -0.059584,
                -0.0329739,
                0.0152574,
                0.0822338,
                0.0349655,
                0.054011,
                0.00173552,
                0.03275,
                -0.0564797,
                -0.0639512,
                0.0115969,
                -0.0959144,
                0.0999788,
                -0.0567478,
                0.00860224,
                -0.0979064,
                -0.00926289,
                0.0374467,
                -0.0204177,
                -0.016352,
                -0.0500625,
                0.0912276,
                0.0296283,
                -0.0154379,
                -0.0187071,
                0.0947952,
                -0.0910453,
                0.00285997,
                0.0309291,
                -0.0274816,
                0.0991224,
                0.0789939,
                0.00892708,
                -0.0485117,
                0.0577428,
                -0.0106527,
                -0.0379716,
                0.08352,
                -0.082573,
                0.0515942,
                -0.0141631,
                -0.0459361,
                0.00859489,
                0.094902,
                0.000356055,
                -0.000102797,
                0.0168093,
                0.0939048,
                -0.096699,
                -0.0173745,
                0.0792781,
                0.0130749,
                -0.0246006,
                0.0352226,
                0.0102668,
                -0.0864685,
                -0.0939553,
                -0.0272515,
                -0.0239882,
                0.0880387,
                0.018607,
                -0.0382221,
                -0.036585,
                -0.0746915,
                0.0524727,
                0.0223678,
                -0.0446441,
                0.0325654,
                0.00224439,
                -0.0890712,
                0.015133,
                0.00410875,
                -0.00196441,
                -0.0673407,
                0.0953088,
                0.0477508,
                -0.0243201,
                0.0957601,
                0.0810813,
                0.0130856,
                -0.0763151,
                0.0883097,
                -0.0533567,
                -0.05711,
                -0.0693814,
                0.0876774,
                0.0739095,
                0.0485642,
                0.095245,
                0.0394679,
                0.0472894,
                0.0316954,
                0.0454121,
                0.081173,
                -0.0924795,
                0.0262192,
                0.0419652,
                0.0947464,
                0.0777676,
                -0.0341315,
                0.0137372,
                -0.068987,
                0.0325306,
                -0.0945432,
                0.0630775,
                0.0927111,
                0.0468347,
                0.0603349,
                0.0488839,
                0.0232911,
                -0.0247832,
                0.0648968,
                -0.0106778,
                -0.0838787,
                -0.0491664,
                -0.0573089,
                -0.0727071,
                0.0905337,
                -0.085775,
                -0.000644975,
                0.00727715,
                -0.0309986,
                0.0340578,
                -0.0511725,
                -0.00255626,
                0.0792663,
                0.0444338,
                0.0754109,
                0.0166995,
                -0.061121,
                0.00487355,
                0.0140295,
                -0.0459681,
                0.0269682,
                0.0083921,
                -0.0412802,
                -0.085442,
                0.0673999,
                0.044495,
                -0.097497,
                -0.0757205,
                -0.0767241,
                0.0790502,
                -0.0858249,
                -0.0178463,
                0.035217,
                -0.0437551,
                -0.0461184,
                0.0759291,
                0.0741074,
                -0.0904816,
                0.0268284,
                -0.023642,
                -0.0794985,
                0.0894226,
                -0.00287183,
                0.0824265,
                -0.0204711,
                -0.00128798,
                0.0205899,
                0.0337522,
                -0.0449997,
                0.0407285,
                -0.00182652,
                0.0465505,
                -0.0166454,
                0.0143657,
                0.0892833,
                0.082134,
                0.0355137,
                -0.0765063,
                0.043518,
                0.0262956,
                0.0346989,
                0.00659038,
                -0.012212,
                -0.049288,
                0.0401118,
                0.0203193,
                -0.0891828,
                -0.0685649,
                -0.0574342,
                -0.0778351,
                0.0961321,
                -0.0621123,
                0.0507766,
                -0.00747778,
                0.0950512,
                0.0385195,
                -0.0861697,
                -0.0649169,
                -0.0543526,
                -0.0775167,
                0.0687497,
                0.0344621,
                0.0347987,
                0.0318738,
                0.0060934,
                0.0510503,
                -0.0536956,
                0.0557434,
                0.014255,
                -0.0616551,
                -0.0870258,
                0.0571552,
                0.0468845,
                -0.070652,
                0.0847605,
                -0.0572016,
                -0.0639635,
                -0.0473612,
                -0.046289,
                -0.0833297,
                0.0734011,
                0.0243189,
                -0.0961196,
                0.0119201,
                0.0444112,
                0.0729611,
                -0.0846374,
                0.0130667,
                0.0505785,
                -0.0835296,
                0.0179598,
                0.0778399,
                -0.0759422,
                0.0903575,
                -0.0273015,
                0.0783716,
                0.0407824,
                0.0106492,
                -0.066017,
                -0.0971091,
                -0.0347396,
                -0.0386889,
                -0.0354012,
                0.0260734,
                -0.0169869,
                -0.0268096,
                -0.0384851,
                -0.00975019,
                -0.0753493,
                0.0986725,
                0.00872475,
                -0.091256,
                -0.0059785,
                0.0359004,
                -0.0857741,
                0.0198475,
                -0.0354037,
                0.0474678,
                0.00153867,
                -0.030419,
                -0.059427,
                -0.0060816,
                -0.0967391,
                0.0836357,
                0.0841604,
                0.0816067,
                -0.0557197,
                0.0570789,
                0.039589,
                0.0358101,
                0.00193977,
                0.0951647,
                0.0078074,
                -0.0388271,
                0.0631597,
                -0.0867856,
                0.00824594,
                0.0943865,
                0.0636765,
                0.062975,
                -0.0840126,
                0.0276502,
                0.0580964,
                0.0185381,
                -0.00443898,
                -0.00813454,
                -0.0515451,
                0.0752817,
                0.0285894,
                0.0243521,
                0.0440462,
                -0.0943581,
                0.0247223,
                -0.0707923,
                0.0636505,
                -0.00278035,
                0.0766604,
                0.0352952,
                -0.0133724,
                0.0999085,
                -0.0947545,
                -0.0270354,
                0.0283128,
                -0.098556,
                0.0635912,
                -0.0330488,
                0.0533512,
                -0.00372843,
                -0.0415267,
                -0.0365257,
                -0.0636278,
                0.0680489,
                0.010363,
                0.0188162,
                0.0817952,
                -0.0767019,
                0.0430276,
                0.0487961,
                0.0456028,
                0.0537105,
                0.0892489,
                0.094548,
                0.0246494,
                -0.0587318,
                -0.00823898,
                -0.0698338,
                -0.0491366,
                0.0662059,
                -0.0455088,
                0.0374261,
                0.0347048,
                -0.0798294,
                0.00414816,
                0.0618057,
                0.0850839,
                -0.0276659,
                -0.0579192,
                -0.0903559,
                -0.0706898,
                -0.0990199,
                -0.0985985,
                -0.0576434,
                0.0714324,
                0.080069,
                -0.0161062,
                0.0630472,
                -0.0662338,
                -0.0443671,
                0.0858721,
                0.0497968,
                0.0519043,
                0.0885971,
                -0.0678988,
                0.0953014,
                -0.0428859,
                0.00332234,
                0.0877455,
                0.0169031,
                -0.093205,
                0.0683121,
                -0.0239827,
                0.0403989,
                -0.0891723,
                -0.0702968,
                0.0540174,
                -0.0448474,
                -0.0936203,
                -0.0250749,
                -0.00124673,
                0.0395874
            ],
            "bias": [
                0.0217023,
                -0.0439126,
                0.0295663,
                -0.0280316,
                -0.060302,
                -0.035269,
                0.074246,
                0.0916898,
                0.0320336,
                -0.0742973,
                0.0856066,
                0.0154442,
                -0.0180953,
                0.0070249,
                0.0269756,
                0.0960262,
                -0.05523,
                -0.0499191,
                0.0640707,
                0.0809528,
                -0.00793436,
                -0.0717404,
                0.0216502,
                0.0725945,
                -0.0318927,
                0.0366578,
                0.0534219,
                0.0946441,
                0.0887812,
                -0.0309173,
                0.0465218,
                0.075731,
                -0.0107478,
                0.0947197,
                -0.0831903,
                -0.0851268,
                0.00615153,
                -0.0602172,
                0.00463073,
                0.087065
            ],
            "internal": [
                0.0391062,
                0.0395626,
                -0.0384401,
                -0.014369,
                -0.0466561,
                0.00468518,
                -0.00290348,
                -0.0366301,
                -0.0931089,
                -0.00475128,
                -0.0744281,
                -0.0631609,
                0.0769249,
                -0.000604137,
                0.002952,
                -0.0884128,
                0.00776036,
                -0.031404,
                -0.0193101,
                0.0278274,
                0.0835985,
                -0.0779128,
                0.0164692,
                0.0326104,
                -0.000163616,
                -0.0992972,
                -0.0889288,
                0.00475127,
                -0.0357243,
                -0.0709431,
                -0.00410897,
                -0.0730477,
                0.00647113,
                -0.0787494,
                -0.00354053,
                -0.0116193,
                0.00567393,
                -0.0966431,
                0.0863826,
                -0.099858,
                -0.0138292,
                -0.00202952,
                0.049532,
                -0.0148018,
                0.0847761,
                -0.0646509,
                0.0702552,
                -0.0823969,
                -0.0452839,
                -0.0527828,
                0.0881944,
                -0.0104896,
                -0.0802868,
                0.069113,
                -0.0538671,
                0.0627359,
                -0.0693008,
                0.0371085,
                0.029663,
                -0.0398178,
                -0.021129,
                -0.00615363,
                0.0136134,
                0.04898,
                -0.0978723,
                -0.0955637,
                -0.0481832,
                -0.00917086,
                0.0818802,
                -0.0986075,
                -0.0257965,
                -0.0949226,
                0.0567622,
                -0.0169341,
                0.0198386,
                0.00629268,
                0.0333996,
                0.0151385,
                -0.0107598,
                0.074371,
                0.0529869,
                -0.0976723,
                -0.0287977,
                0.0784694,
                0.0773091,
                0.000243187,
                -0.0163786,
                0.0812074,
                0.0270025,
                -0.0963708,
                0.0045881,
                -0.0277141,
                -0.0890308,
                -0.0207832,
                -0.0683746,
                0.0491983,
                -0.00341269,
                -0.00628276,
                -0.0518526,
                0.0865765,
                -5.18039e-05,
                -0.0694744,
                0.0773208,
                0.0454872,
                -0.0938378,
                0.0026883,
                -0.0768644,
                -0.0829934,
                -0.0794922,
                0.0306473,
                -0.0820361,
                0.0136163,
                -0.092524,
                -0.0298705,
                0.0485085,
                -0.0907554,
                0.0264536,
                -0.0100774,
                0.0143219,
                -0.0966947,
                -0.0919338,
                0.0515862,
                0.074739,
                -0.032355,
                -0.0451224,
                0.0224551,
                0.0157606,
                -0.0402867,
                0.0879672,
                0.0251574,
                -0.0492724,
                0.0683381,
                -0.0715289,
                -0.00207438,
                -0.0672212,
                0.0827239,
                -0.0103597,
                0.00339341,
                -0.0548971,
                -0.0303284,
                0.0864625,
                -0.0331218,
                0.0869784,
                -0.0902493,
                -0.0446668,
                -0.00450552,
                0.0900505,
                -0.0232787,
                0.0948575,
                -0.0525626,
                -0.0386485,
                -0.0626036,
                -0.00127991,
                0.0794439,
                0.0627384,
                -0.0764587,
                0.031638,
                -0.0972871,
                0.0176939,
                0.000371024,
                -0.00644051,
                -0.0977716,
                -0.016891,
                0.00440478,
                0.0376085,
                -0.022536,
                -0.0411887,
                -0.0640173,
                0.0548863,
                -0.0848226,
                0.00793233,
                0.0475679,
                -0.0135769,
                -0.0798046,
                0.0691725,
                -0.0585743,
                -0.0697769,
                -0.00164351,
                -0.00963441,
                -0.0602546,
                0.0971019,
                0.0834989,
                -0.0760423,
                -0.0259739,
                0.0385773,
                0.0379496,
                -0.0345578,
                -0.0676742,
                -0.0321698,
                -0.0360353,
                -0.0674382,
                -0.029998,
                0.0784047,
                0.0837867,
                0.0885442,
                -0.066601,
                0.0599407,
                0.0367664,
                -0.0587774,
                -0.0948184,
                -0.0321194,
                -0.0081778,
                -0.0113465,
                0.0712975,
                -0.0431297,
                -0.0776893,
                -0.0157229,
                -0.0537134,
                -0.0193265,
                -0.0959524,
                0.0649771,
                0.000722661,
                -0.0897241,
                -0.066458,
                -0.0621732,
                -0.0200978,
                -0.00120364,
                -0.00566188,
                0.0543408,
                -0.0180551,
                -0.0966207,
                0.0495124,
                -0.028722,
                0.0911824,
                0.0799991,
                -0.0184089,
                -0.00272296,
                -0.0162611,
                -0.0726708,
                -0.0126692
            ]
        },
        "subsample_level_0": {
            "input": [
                0.0355577,
                0.0781455,
                0.0763434,
                -0.0752298,
                -0.0659282,
                0.0223533,
                -0.0803712,
                -0.0537118,
                -0.00193189,
                0.0889865,
                -0.015883,
                0.018021,
                -0.00482043,
                0.0995483,
                -0.0317296,
                -0.0687335,
                -0.0233618,
                -0.0448592,
                0.058093,
                0.0288598,
                0.0638819,
                -0.0602209,
                -0.0879031,
                0.0404955,
                0.0613922,
                0.0182254,
                0.0672127,
                -0.0434254,
                -0.0886235,
                0.0554598,
                -0.0827985,
                -0.0723317,
                -0.0868933,
                0.0393066,
                0.0650986,
                0.0900729,
                -0.0400952,
                0.00564764,
                0.0373708,
                -0.00298897,
                -0.0808754,
                0.0304085,
                0.0135187,
                -0.0359108,
                -0.0459837,
                0.0310385,
                0.0344476,
                0.0863046,
                -0.0767389,
                0.0780678
            ],
            "bias": [
                0.0705381,
                0.0683482,
                0.0368186,
                0.0958455,
                -0.0405405
            ],
            "internal": []
        },
        "blstm_level_1": {
            "input": [
                -0.0336514,
                0.0734261,
                -0.0367065,
                -0.0530315,
                0.0919257,
                -0.0501962,
                0.0118182,
                0.0429572,
                0.0207816,
                -0.0399166,
                -0.00482853,
                0.0599908,
                -0.0700247,
                0.0116451,
                -0.0459714,
                -0.0130501,
                0.0947558,
                -0.0950734,
                -0.0222386,
                0.0652985,
                0.0971738,
                -0.0864002,
                -0.00129721,
                0.0786739,
                -0.00543669,
                0.0239727,
                0.0939967,
                -0.0162057,
                0.0293202,
                0.0891633,
                -0.0212685,
                -0.040739,
                -0.0248325,
                0.0790813,
                -0.0737471,
                -0.0676301,
                0.0398001,
                -0.0199581,
                -0.045475,
                -0.0603708,
                0.0830696,
                0.0435707,
                0.0374149,
                -0.0759832,
                -0.0975428,
                0.00707151,
                -0.039759,
                -0.0837505,
                -0.016438,
                0.0066145,
                0.0205884,
                -0.0986349,
                -0.0522102,
                0.0271746,
                -0.00766367,
                0.0628703,
                0.0416367,
                -0.026555,
                0.0903479,
                0.0750553,
                0.0363378,
                0.0417401,
                -0.0859323,
                0.0501018,
                0.0884628,
                -0.0744511,
                -0.0729049,
                0.0858526,
                0.0277462,
                0.091192,
                0.0752192,
                -0.071284,
                0.0984532,
                0.0474421,
                -0.0473763,
                -0.00284851,
                -0.0868463,
                -0.0848635,
                0.0754278,
                0.0629109,
                -0.000460438,
                0.0986934,
                -0.0936467,
                -0.0738993,
                0.0619455,
                -0.0450829,
                0.00295001,
                0.0318289,
                -0.0350754,
                -0.0858283,
                -0.017873,
                -0.0158895,
                -0.0138991,
                0.0245315,
                0.0760447,
                -0.0817776,
                -0.0478291,
                0.00432553,
                0.0255609,
                0.0980008,
                0.0503326,
                -0.069147,
                0.0572359,
                0.0549336,
                0.0527587,
                -0.0294944,
                -0.0752331,
                0.0106488,
                -0.0529702,
                0.0183403,
                0.0823656,
                -0.0486204,
                0.0397225,
                0.0650313,
                -0.0101214,
                -0.0943194,
                0.09438,
                0.0841704,
                0.0566874,
                0.000625767,
                0.0455192,
                0.029472,
                0.0242064,
                0.074959,
                0.0656526,
                -0.0635757,
                0.0760007,
                -0.0942729,
                0.0399642,
                -0.051319,
                0.0230163,
                -0.073355,
                -0.0227197,
                0.020882,
                -0.0135039,
                0.0426788,
                -0.0438055,
                -0.0851013,
                -0.0558252,
                0.0553741,
                0.0469831,
                -0.00273053,
                -0.0329377,
                0.0906859,
                -0.0494409,
                0.0759345,
                -0.0848861,
                -0.0979564,
                -0.0545028,
                0.0298763,
                0.00523277,
                -0.0271545,
                -0.0469654,
                -0.0178753,
                0.0234303,
                -0.00646114,
                0.0960364,
                0.0218934,
                0.0624905,
                0.0129118,
                0.0779574,
                -0.0563068,
                -0.0352112,
                -0.0901887,
                0.0123736,
                0.0293793,
                -0.0886285,
                -0.0278224,
                0.0447165,
                0.0125221,
                0.0144161,
                0.0716401,
                -0.0806815,
                0.0594245,
                0.0896575,
                -0.026503,
                -0.0586672,
                -0.0410401,
                0.0123481,
                0.0350502,
                0.0365905,
                -0.0182041,
                0.0362307,
                -0.00348505,
                -0.0653306,
                -0.0211091,
                0.081847,
                -0.0630567,
                -0.0715159,
                -0.0359294,
                -0.0636877,
                0.0780884,
                0.0120983,
                -0.0310938,
                -0.0393167,
                -0.0836228,
                -0.00445373,
                0.00901657,
                0.029562,
                0.020216
            ],
            "bias": [
                0.0487943,
                -0.0695735,
                0.0413365,
                0.0473498,
                -0.0562355,
                0.00849418,
                -0.0333428,
                -0.0305202,
                0.0278981,
                0.0660554,
                -0.0925141,
                0.092689,
                0.0296658,
                -0.0602965,
                0.0393202,
                -0.018126,
                0.0305069,
                -0.0595813,
                0.00108653,
                -0.0746562,
                0.0419574,
                0.0511006,
                -0.0169642,
                0.0845095,
                -0.0669801,
                0.0319519,
                -0.0334888,
                -0.099233,
                0.071219,
                0.0144478,
                0.0468257,
                -0.00584081,
                0.0913474,
                -0.0960309,
                0.0108479,
                0.00990873,
                0.024738,
                0.0373995,
                -0.0784532,
                -0.0707667
            ],
            "internal": [
                0.0839973,
                0.00801686,
                -0.0552547,
                -0.0123458,
                0.0659788,
                -0.0788483,
                0.056235,
                0.027028,
                0.0110525,
                -0.0035709,
                -0.0394385,
                -0.0214992,
                0.0943756,
                -0.014144,
                0.00772796,
                0.00952955,
                -0.0585918,
                0.097836,
                -0.083218,
                -0.0918763,
                -0.0645631,
                0.0674429,
                0.0666743,
                -0.0657274,
                -0.0947029,
                0.0421195,
                -0.00610813,
                -0.0748498,
                0.0493533,
                -0.0644495,
                -0.0444323,
                0.0183133,
                -0.0847478,
                -0.00145292,
                0.0681876,
                0.0565596,
                0.0298255,
                0.0118118,
                -0.0787458,
                0.00292223,
                0.0585563,
                -0.0655022,
                0.0373031,
                -0.0613211,
                -0.0500366,
                -0.012424,
                0.0457136,
                0.00811804,
                0.0838991,
                0.0779517,
                -0.052676,
                -0.021471,
                -0.00244717,
                0.0740068,
                0.041599,
                0.0933311,
                0.0848927,
                -0.0843548,
                0.0998573,
                -0.0790319,
                0.00285658,
                0.0366845,
                0.0297196,
                0.0887972,
                0.0786762,
                0.0371665,
                0.011631,
                0.0964164,
                0.0591907,
                -0.0116168,
                -0.0219554,
                -0.0703814,
                0.0363922,
                0.0229939,
                0.073962,
                -0.0755224,
                -0.0814091,
                -0.022095,
                -0.0476368,
                -0.0711756,
                0.0880387,
                0.0648686,
                -0.0102064,
                -0.042205,
                -0.0608145,
                0.00995792,
                -0.00703198,
                -0.0369826,
                0.0855026,
                0.00791643,
                -0.0613708,
                0.0777848,
                0.0582808,
                -0.0219951,
                0.0349912,
                0.0898976,
                -0.0945819,
                0.0670387,
                0.0443478,
                -0.0345664,
                0.0870153,
                0.0632417,
                0.0351905,
                0.0644321,
                -0.0373499,
                0.000838196,
                -0.0422283,
                -0.0893507,
                -0.0556934,
                0.0837513,
                0.0773171,
                0.0381704,
                0.0979757,
                0.0405036,
                -0.0379981,
                -0.0678975,
                -0.0674266,
                0.0521464,
                0.0484867,
                0.0782784,
                0.076888,
                -0.027223,
                0.0787921,
                0.0709058,
                -0.0968433,
                0.08954,
                -0.036341,
                0.0610511,
                -0.089155,
                0.0674445,
                -0.0478723,
                0.08296,
                -0.0229003,
                0.0351632,
                -0.0660374,
                -0.0462703,
                0.0644379,
                0.0528788,
                -0.0600397,
                0.0798666,
                -0.0400966,
                0.0652849,
                0.0988073,
                -0.0873708,
                0.00289245,
                0.0682904,
                -0.00478103,
                0.0313284,
                -0.0938134,
                0.0234734,
                0.0407344,
                0.0361475,
                0.00825612,
                0.0119912,
                0.00696864,
                0.052552,
                -0.013038,
                -0.00293844,
                0.0563564,
                -0.0221523,
                0.0721001,
                0.0261707,
                -0.0804476,
                0.085471,
                -0.0182787,
                0.0398162,
                -0.053422,
                0.0847912,
                0.0759374,
                0.0344283,
                0.00607727,
                -0.0131591,
                -0.0717969,
                0.0445493,
                0.0154829,
                -0.0170334,
                0.0286088,
                0.0622865,
                -0.0666142,
                -0.0939113,
                -0.0804331,
                -0.0634249,
                -0.064236,
                0.0253017,
                0.000405838,
                -0.0400549,
                -0.0301277,
                -0.0363316,
                0.0911929,
                0.082172,
                0.0924816,
                0.0444492,
                -0.0530823,
                0.0383223,
                -0.0994483,
                -0.0165239,
                -0.0219635,
                -0.0286977,
                0.0565166,
                -0.0571482,
                -0.0298398,
                -0.0898419,
                0.0484337,
                -0.0141692,
                -0.0526725,
                -0.0791705,
                0.0432982,
                -0.0660511,
                0.0845155,
                -0.0818297,
                -0.0778652,
                0.0171352,
                -0.0709919,
                -0.0354859,
                -0.0835588,
                0.0924847,
                -0.0747854,
                -0.0883159,
                -0.0378252,
                0.060919,
                -0.00465182,
                0.00315113,
                -0.027162,
                -0.0968443,
                -0.0877402,
                -0.00989963,
                -0.000951183,
                -0.09012,
                0.0353681,
                0.0559898
            ]
        },
        "subsample_level_1": {
            "input": [
                0.087812,
                0.00196359,
                -0.0690587,
                0.000668142,
                0.08755,
                -0.0819164,
                0.0515653,
                0.0068219,
                -0.0685565,
                -0.0255289,
                0.048571,
                -0.0933826,
                -0.0441218,
                -0.0154069,
                -0.0394016,
                -0.0907755,
                0.0118116,
                -0.0784371,
                0.0316827,
                0.0333153,
                0.0125249,
                0.0226414,
                -0.00750316,
                -0.0488464,
                -0.0310381,
                -0.08225,
                -0.0583073,
                -0.0226551,
                -0.0428159,
                -0.062598,
                -0.0865063,
                -0.0759004,
                -0.0845247,
                0.0255972,
                -0.0714807,
                0.0879535,
                0.0775638,
                0.0322325,
                0.0236601,
                -0.0777416,
                0.0580096,
                0.0127712,
                0.00527533,
                0.0419986,
                -0.0808434,
                -0.000372942,
                0.00101675,
                0.093857,
                0.0552664,
                -0.023922
            ],
            "bias": [
                -0.075207,
                0.0907228,
                -0.0358279,
                -0.0351126,
                -0.0653924
            ],
            "internal": []
        },
        "blstm_level_2": {
            "input": [
                0.0914569,
                -0.0138604,
                0.0211938,
                -0.0770483,
                0.0893377,
                -0.0242506,
                -0.0813018,
                0.0776244,
                -0.0539375,
                -0.0843809,
                -0.00419413,
                0.0116465,
                0.0746683,
                0.0548582,
                -0.0371807,
                0.0810325,
                0.0427113,
                -0.0866184,
                0.089934,
                -0.0367346,
                0.0958031,
                -0.0456141,
                -0.0847268,
                0.0175706,
                0.0787479,
                -0.0582811,
                0.0490627,
                -0.0871696,
                -0.0164891,
                0.0855109,
                -0.0851746,
                -0.00877727,
                0.0621541,
                0.0277116,
                0.0557912,
                -0.0217435,
                0.0962446,
                -0.0428624,
                -0.0682354,
                -0.0637265,
                -0.0419771,
                0.0262914,
                0.0815407,
                0.0201036,
                -0.0844339,
                -0.0251261,
                -0.0290887,
                0.0177538,
                -0.0465417,
                -0.0555921,
                -0.0930793,
                0.0861348,
                -0.0879874,
                -0.00273352,
                0.0548492,
                -0.000767642,
                0.0661217,
                0.0420776,
                -0.0125116,
                0.0645979,
                -0.0697272,
                -0.0792677,
                -0.0120658,
                0.0326445,
                -0.0779093,
                -0.0239768,
                -0.0825247,
                -0.0365465,
                -0.0314702,
                0.065329,
                -0.0611168,
                -0.0598079,
                -0.0476933,
                -0.0382098,
                0.0763643,
                0.0646469,
                0.087272,
                -0.0545153,
                0.0663372,
                -0.039405,
                0.0751535,
                0.050805,
                -0.0329524,
                -0.0529275,
                -0.0594862,
                0.035046,
                0.00364985,
                -0.0783508,
                -0.0998967,
                0.0366956,
                0.0983126,
                0.0816563,
                -0.0362114,
                -0.00324128,
                -0.00243584,
                0.016181,
                0.0106318,
                0.0246008,
                0.0180913,
                -0.0927597,
                -0.0403956,
                0.0499724,
                0.0358959,
                -0.0827968,
                -0.033587,
                0.0523096,
                -0.0107543,
                -0.095192,
                -0.0767368,
                0.00280306,
                0.0369527,
                0.0110946,
                -0.0411982,
                0.0682185,
                0.0705956,
                0.0752966,
                0.0522799,
                0.0725273,
                -0.0316441,
                0.0422924,
                -0.0414331,
                0.0347045,
                0.0785064,
                0.0764038,
                -0.0891072,
                -0.0438075,
                -0.0505166,
                -0.014548,
                0.0747614,
                -0.0434115,
                0.0241635,
                0.0768416,
                0.0657267,
                -0.00116796,
                -0.0459056,
                -0.0524792,
                0.0673809,
                -0.0159893,
                0.00289037,
                -0.0320345,
                0.0328934,
                -0.0537295,
                -0.0356765,
                0.0155339,
                0.0718889,
                0.0609762,
                -0.0107534,
                -0.0328662,
                -0.0916116,
                0.0275785,
                -0.0200535,
                -0.050741,
                -0.0229223,
                0.0260313,
                -0.0771366,
                0.0601892,
                0.0140625,
                -0.0890796,
                0.0580908,
                0.0612828,
                -0.0186911,
                0.0927075,
                0.0259137,
                0.0580193,
                0.0658734,
                -0.05332,
                -0.0281153,
                -0.0172148,
                0.0228317,
                -0.0674346,
                -0.0959415,
                -0.0536509,
                0.0455131,
                0.0934402,
                0.0167161,
                -0.00600236,
                0.0814705,
                -0.0210535,
                0.00316013,
                0.00230882,
                -0.0463375,
                0.0410256,
                -0.0967046,
                -0.00638035,
                -0.017735,
                -0.0677569,
                -0.0840593,
                0.0344282,
                0.0765821,
                -0.0750938,
                0.0595647,
                -0.0844656,
                -0.0778725,
                -0.0212192,
                0.082897,
                0.0416079,
                -0.0744001,
                -0.0536184,
                0.0776381,
                0.0720241
            ],
            "bias": [
                -0.0722759,
                -0.0779138,
                -0.0170751,
                -0.0690926,
                0.0386056,
                -0.0679804,
                -0.0613801,
                -0.0320107,
                -0.0236664,
                0.0812515,
                0.0603392,
                -0.0276856,
                0.0441099,
                -0.0781384,
                0.0055185,
                0.0642407,
                -0.0377126,
                0.0925142,
                -0.00307138,
                -0.0038515,
                0.0853066,
                0.0743038,
                -0.0104396,
                -0.0788846,
                0.0400683,
                0.0909013,
                -0.0354842,
                -0.0811933,
                -0.0913098,
                -0.0553255,
                -0.00970903,
                -0.0297498,
                -0.0404226,
                0.060201,
                -0.0872841,
                -0.0933071,
                -0.0512933,
                0.0576348,
                -0.0358821,
                -0.0826402
            ],
            "internal": [
                0.0407306,
                -0.027777,
                0.0681994,
                0.0116721,
                -0.0214491,
                0.034614,
                -0.0466946,
                -0.0821965,
                0.0606009,
                0.00417242,
                0.0225758,
                -0.0987763,
                -0.032391,
                0.0445201,
                0.0598343,
                -0.0579835,
                -0.0450196,
                -0.0527122,
                0.00263209,
                0.00281791,
                -0.0622398,
                0.0660941,
                0.0222607,
                0.0453278,
                -0.0637959,
                -0.0488009,
                -0.0861109,
                0.0408949,
                0.036582,
                -0.0961691,
                0.0235372,
                0.0334391,
                0.0861606,
                0.0289177,
                -0.0676039,
                -0.000236458,
                0.0271412,
                -0.0368903,
                -0.046224,
                -0.00549566,
                -0.0998636,
                -0.0520191,
                -0.0067682,
                -0.0869378,
                0.052008,
                0.0221177,
                0.0375238,
                -0.0815723,
                0.0284052,
                0.00428891,
                0.0126961,
                0.0378932,
                0.0425972,
                -0.0267891,
                -0.084567,
                -0.0195204,
                0.0282942,
                0.0500077,
                0.0117358,
                0.0115388,
                0.0416124,
                -0.0218244,
                0.00821233,
                -0.08389,
                -0.0439986,
                0.0755496,
                -0.0201186,
                -0.00745753,
                0.0649208,
                0.0678276,
                -0.0752024,
                0.0923357,
                0.0354897,
                -0.035049,
                -0.0375897,
                -0.0452313,
                0.0955219,
                0.00757814,
                0.027632,
                0.0250672,
                -0.033528,
                -0.0612691,
                -0.0413029,
                -0.0619099,
                0.0754515,
                -0.0381865,
                -0.0576037,
                0.0683431,
                0.0436097,
                0.0812688,
                -0.00939072,
                -0.00370293,
                0.0398102,
                -0.0572437,
                0.0792575,
                -0.0470603,
                0.00266596,
                -0.0386358,
                -0.0613118,
                0.040528,
                0.0506955,
                -0.0522409,
                0.0044055,
                -0.0982087,
                0.0457351,
                -0.0945479,
                0.00426342,
                -0.076426,
                0.0549904,
                0.00226229,
                -0.0345135,
                0.0141864,
                -0.0606038,
                0.012083,
                0.0910172,
                0.0196983,
                0.0524868,
                -0.0979921,
                -0.0735845,
                0.0691026,
                0.0250375,
                0.00843257,
                -0.0596075,
                -0.0279234,
                0.0851017,
                0.0502178,
                -0.065008,
                0.0985464,
                0.0471929,
                -0.0105181,
                -0.0567067,
                -0.0515649,
                -0.0700432,
                0.0436799,
                -0.0353421,
                0.078294,
                0.0449786,
                0.0451939,
                0.0511514,
                0.041499,
                0.033665,
                -0.0683756,
                -0.0633888,
                -0.0255979,
                0.00352863,
                -0.0747736,
                0.0687233,
                -0.048075,
                -0.0459487,
                0.0363167,
                0.04393,
                0.0235005,
                0.022917,
                0.0793325,
                -0.0653743,
                0.0902647,
                0.0538726,
                -0.0484751,
                0.0278988,
                -0.0365948,
                0.0192472,
                0.070149,
                0.0720809,
                0.0933447,
                0.0521295,
                -0.0920751,
                0.018709,
                -0.0546429,
                -0.096408,
                0.0998152,
                0.0992573,
                0.0692661,
                -0.0154744,
                -0.0799404,
                -0.00360506,
                -0.0126509,
                0.0438719,
                0.0610004,
                0.0749063,
                0.0746658,
                -0.0241756,
                0.0992544,
                -0.0902165,
                0.0328709,
                0.0727464,
                -0.0300538,
                0.0073564,
                0.0111465,
                0.0424672,
                0.0963874,
                0.0516907,
                0.0767919,
                -0.068171,
                0.0120406,
                -0.0235358,
                -0.0654808,
                0.0508804,
                -0.0498688,
                -0.092227,
                0.093833,
                0.0819353,
                -0.0801217,
                -0.00581907,
                -0.0546624,
                -0.0184359,
                0.0641459,
                -0.0898768,
                0.090556,
                0.0313599,
                0.0933552,
                -0.097133,
                -0.0841395,
                -0.0777522,
                0.0802701,
                -0.0165013,
                -0.0459797,
                -0.019388,
                0.0566722,
                0.0529033,
                -0.00856436,
                -0.0959022,
                -0.033826,
                -0.00916986,
                -0.00959855,
                0.017929,
                -0.0498717,
                -0.0308472,
                -0.0878115,
                0.071776,
                -0.077626
            ]
        },
        "output": {
            "input": [
                -0.0320295,
                -0.0485728,
                -0.0253773,
                0.0378713,
                0.037996,
                0.0905084,
                -0.0425564,
                0.0044267,
                0.0749444,
                0.0757418,
                -0.0258661,
                -0.0725559,
                -0.0885167,
                -0.0907587,
                -0.0115456,
                0.015307,
                -0.0341328,
                0.0174072,
                0.0151131,
                0.00976839,
                0.0343519,
                -0.0719225,
                0.0392692,
                -0.0483214,
                0.0951248,
                0.0456295,
                0.022664,
                0.0326183,
                0.0753169,
                0.0480874,
                0.0562727,
                0.0788654,
                0.0508188,
                -0.000170512,
                -0.0460269,
                0.0163887,
                0.0246214,
                0.0503899,
                0.0604658,
                -0.00226101,
                -0.0558712,
                -0.0752293,
                -0.0379955,
                -0.0988155,
                -0.00561408,
                -0.0568337,
                -0.00141639,
                -0.0612318,
                0.0656795,
                0.0874911,
                0.0599143,
                0.0887618,
                0.093295,
                0.0874817,
                -0.0713286,
                -0.0406167,
                -0.0361625,
                -0.0290334,
                0.0614678,
                0.0665157,
                0.0570372,
                0.0598472,
                0.0797646,
                0.0873447,
                -0.0620252,
                0.0597614,
                -0.0547766,
                0.00299442,
                0.0199037,
                -0.0623013,
                0.0558896,
                -0.02359,
                -0.0648685,
                0.00185807,
                -0.0420415,
                0.0909241,
                -0.0697216,
                0.0190711,
                -0.00249287,
                0.0241579,
                -0.00327179,
                -0.0549853,
                0.0986846,
                -0.0498049,
                0.0361996,
                -0.0266921,
                0.0108167,
                0.0636494,
                0.0318227,
                -0.0881699,
                -0.0911004,
                -0.0760184,
                -0.099606,
                0.0325033,
                0.0595216,
                0.0164246,
                -0.0287431,
                0.0313902,
                0.0833201,
                -0.021487,
                0.0815847,
                -0.0427192,
                0.0554842,
                -0.069464,
                -0.0587475,
                -0.0889311,
                0.0677305,
                -0.0412135,
                -0.0714867,
                -0.055243,
                -0.00177574,
                0.0851612,
                -0.0530764,
                0.00123758,
                0.0539351,
                -0.0259001,
                0.0863368,
                0.0109979,
                -0.0660363,
                0.0545358,
                0.0345873,
                -0.0891561,
                -0.029733,
                -0.0530845,
                -0.0934918,
                -0.0697981,
                -0.0692269,
                -0.0496778,
                -0.0864092,
                0.0416591,
                -0.0370236,
                -0.000417974,
                -0.0141764,
                0.0402433,
                -0.01261,
                -0.04498,
                -0.0106016,
                0.0114949,
                0.0842507,
                0.0438427,
                0.0416113,
                -0.0788623,
                -0.0775027,
                0.0780813,
                0.068114,
                -0.00155893,
                0.0778112,
                0.066466,
                -0.0847751,
                0.0866516,
                0.058349,
                0.012268,
                0.0931378,
                -0.0995155,
                -0.0285656,
                0.0986972,
                0.0389098,
                -0.0478878,
                0.0672935,
                -0.0956348,
                0.0323109,
                -0.0387615,
                0.0383006,
                0.0423903,
                -0.0865503,
                -0.0997891,
                0.000275224,
                0.089595,
                -0.0170009,
                0.0223763,
                -0.0678357,
                0.0186547,
                0.0180312,
                -0.0249739,
                0.0949097,
                0.0329511,
                0.0174625,
                -0.0242031,
                -0.0355116,
                -0.00317055,
                0.0403805,
                0.027282,
                0.0393082,
                -0.0716272,
                0.0201889,
                -0.0261561,
                -0.0490294,
                0.0861459,
                0.00167167,
                -0.0193837,
                -0.0314092,
                -0.0752729,
                -0.000831589,
                0.0918627,
                -0.00021799,
                -0.096915,
                -0.0283012,
                -0.0349954,
                0.0166922,
                -0.0897188,
                0.0969004,
                -0.0913305,
                -0.0446868,
                0.0856243,
                0.0943077,
                -0.00566758,
                0.0820615,
                0.0552142,
                -0.0870349,
                -0.0957099,
                -0.0537972,
                -0.0139754,
                0.0551053,
                0.0324461,
                0.0350753,
                -0.0187537,
                0.0703348,
                -0.0303447,
                0.0577147,
                0.0259645,
                -0.0561023,
                0.0371009,
                -0.0668895,
                0.00518724,
                -0.0643275,
                0.0877281,
                0.0856705,
                0.0803571,
                0.0623891,
                0.0930865,
                0.0854385,
                -0.0413102,
                0.091527,
                0.0751545,
                -0.0342028,
                0.0460981,
                -0.0705383,
                0.051842,
                0.0825331,
                -0.0938227,
                0.0054791,
                -0.0492791,
                -0.021325,
                -0.0185459,
                -0.0730148,
                0.0020766,
                0.0646685,
                -0.0915577,
                0.0127684,
                -0.0266523,
                0.0136747,
                -0.0475699,
                -0.0324888,
                0.0225275,
                -0.0540724,
                0.0534218,
                0.0141679,
                0.00886951,
                0.0604073,
                0.0368418,
                -0.0870798,
                0.0377508,
                -0.0489878,
                -0.0914483,
                0.022763,
                -0.0800478,
                -0.0552636,
                -0.078124,
                0.05114,
                4.1203e-05,
                0.0508958,
                0.067807,
                -0.0912592,
                0.0844461,
                0.05914,
                0.0989227,
                0.0632054,
                0.0615092,
                0.0913967,
                -0.0450601,
                0.0426412,
                -0.0264609,
                0.0971007,
                -0.0940563,
                -0.0310769,
                0.035676,
                -0.0418642,
                -0.0590418,
                0.0949508,
                0.0270768,
                -0.0756672,
                0.0414231,
                -0.0805734,
                -0.00751544,
                -0.0131299,
                0.0317277,
                0.0302462,
                0.0525927,
                -0.0443226,
                0.0203966,
                0.0385921,
                0.0554529,
                0.0437143,
                0.0751552,
                0.0745882,
                0.0871845,
                -0.0538818,
                0.00193082,
                0.0982944,
                0.0277359,
                -0.0324727,
                -0.0649056,
                -0.0508524,
                0.037024,
                0.0778837,
                0.0972411,
                0.0500284,
                -0.0836201,
                -0.00899401,
                0.0259788,
                0.0525368,
                0.0801046,
                -0.0211028,
                0.0963754,
                0.0922268,
                -0.0862353,
                0.0121186,
                -0.0391615,
                0.0505065,
                0.0535265,
                -0.0250803,
                0.0956109,
                -0.0277756,
                0.0663875,
                0.0654992,
                0.078732,
                0.0861102,
                -0.0550784,
                -0.0634488,
                -0.0729419,
                -0.0418891,
                -0.0284211,
                -0.0729249,
                -0.0283561,
                0.0648088,
                -0.0786042,
                -0.0653756,
                0.0836785,
                0.0627471,
                -0.0152601,
                -0.00145605,
                0.0126305,
                0.0970503,
                -0.000782699,
                -0.0271902,
                -0.0349828,
                0.0892682,
                0.0207884,
                0.0348392,
                0.0222172,
                -0.0161529,
                0.0651005,
                -0.00904923,
                -0.0703495,
                0.0786458,
                -0.0312177,
                -0.0277261,
                -0.075342,
                -0.072905,
                -0.0621371,
                -0.0246632,
                0.0624556,
                -0.0305353,
                -0.0816264,
                -0.0503119,
                0.036861,
                0.0852302,
                0.0650191,
                -0.0344674,
                0.0792181,
                0.0423874,
                -0.0888818,
                0.0595471,
                0.0877769,
                -0.0673852,
                0.0194829,
                0.0506268,
                -0.00322934,
                -0.045089,
                -0.00649361,
                -0.0814463,
                0.0731626,
                0.00243362,
                -0.0066337,
                0.0689368,
                -0.0349813,
                -0.0566297,
                -0.0182224,
                -0.0159527,
                0.0912319,
                -0.0401535,
                0.0844648,
                -0.0376739,
                -0.0745045,
                0.0041143,
                -0.083533,
                0.0726295,
                0.0859316,
                -0.0837618,
                0.0270292,
                -0.0184484,
                -0.0198729,
                -0.0314293,
                -0.0759551,
                0.00412537,
                0.0241138,
                0.077427,
                0.0364736,
                0.0374327,
                -0.0045954,
                -0.029277,
                -0.0733442,
                -0.0666387,
                0.000567643,
                0.0871991,
                0.0104031,
                0.0431905,
                -0.0644735,
                0.0621264,
                -0.0352557,
                -0.0083151,
                -0.040091,
                0.0447951,
                -0.0624005,
                0.0817945,
                -0.0211402,
                -0.0416069,
                -0.053511,
                -0.0203507,
                0.0711168,
                0.0101611,
                -0.0597877,
                0.00682855,
                -0.0953261,
                -0.00873773,
                -0.0545011,
                -0.0863447,
                0.0265889,
                -0.0337834,
                -0.0584735,
                -0.0992667,
                -0.0381804,
                -0.0699475,
                -0.0640921,
                0.0403152,
                0.0532978,
                -0.0634575,
                0.0484172,
                -0.0290362,
                0.0819971,
                -0.0261642,
                0.0283962,
                0.0189274,
                -0.0235298,
                -0.0313723,
                -0.0414626,
                -0.0458832,
                0.0373339,
                -0.0936055,
                -0.0717625,
                -0.0708464,
                -0.0625556,
                0.0427267,
                -0.030756,
                -0.0870374,
                0.091139,
                -0.0745411,
                -0.0136565,
                0.00781661,
                -0.0727263,
                0.0972144,
                -0.0521631,
                0.010495,
                0.0113978,
                0.040179,
                0.0216972,
                0.0584535,
                -0.0979268,
                -0.0448989,
                0.0602919,
                0.089576,
                0.0274483,
                0.0611516,
                -0.0885532,
                0.047712,
                -0.0367398,
                0.0121118,
                0.0298722,
                0.00982902,
                0.00299656,
                -0.0892152,
                -0.0759341,
                0.0832024,
                0.0548318,
                -0.060075,
                -0.0892249,
                0.0047262,
                -0.0826528,
                -0.0739833,
                -0.0592507
            ],
            "bias": [
                -0.0955816,
                -0.0446851,
                -0.0274316,
                -0.0288677,
                0.0966846,
                -0.0439343,
                -0.0274356,
                0.00160321,
                -0.0576939,
                -0.0681357,
                0.0777584,
                -0.0862313,
                0.0931027,
                0.0634015,
                -0.0681809,
                -0.0737142,
                -0.0762684,
                -0.0567632,
                -0.0331228,
                0.0874879,
                -0.0438587,
                0.0531458,
                -0.00993991,
                0.0501404,
                -0.0263931,
                -0.0438472,
                -0.0934841,
                -0.0220375,
                -0.0545917,
                0.0873315,
                -0.0795852,
                -0.0734269,
                0.00845918,
                -0.0480065,
                0.0835069,
                -0.0843846,
                -0.0838095,
                0.0827933,
                -0.0314803,
                -0.0865063,
                -0.0175493,
                0.0161776,
                0.0419022,
                0.00238908,
                -0.00375358,
                0.00295443,
                0.0116187,
                -0.0949452,
                -0.0241667,
                -0.0985099,
                -0.0200939
            ],
            "internal": []
        }
    }
}